#pragma once

// FSRCCNN-s Model is smaller FSRCNN
// Model(http://mmlab.ie.cuhk.edu.hk/projects/FSRCNN.html)
// FSRCCNN-s's paramaters (d, s, m) in paper is (32,5,1)
// d=32:Feature_extration Filters
// s=5:Shrinking-layer Filters
// m=1:Mapping Layers
// Shape = (N, H, W, C)


#include <vector>

struct fsrcnn_s_params
{
	static fsrcnn_s_params* getInstance()
	{
		if (instance == nullptr)
		{
			instance = new fsrcnn_s_params();
		}
		return instance;
	}

	float feature_extraction_block_feature_extraction_w[5 * 5 * 1 * 32] =
	{ -0.09670855849981308, -0.24960216879844666, 0.0845053568482399, -0.06438010185956955, 0.18663983047008514, 0.12354957312345505, 0.19284702837467194, -0.19209446012973785, 0.08703821152448654, 0.3536481559276581, 0.04115726053714752, 0.02603009156882763, -0.06358358263969421, 0.04580925405025482, 0.006476656533777714, 0.10975123196840286, 0.02168595977127552, -0.05758159980177879, 0.1746227741241455, 0.026581311598420143, 0.07983534783124924, -0.03443632274866104, -0.1044059470295906, 0.11020650714635849, 0.04234345629811287, -0.16710196435451508, -0.0671166479587555, -0.1094016507267952, -0.4182518720626831, 0.44223105907440186, -0.07470257580280304, 0.28378474712371826
	  , 0.03889061510562897, -0.055678240954875946, 0.158925399184227, -0.0771779865026474, 0.25577929615974426, 0.01133651565760374, -0.11157418042421341, 0.018445173278450966, 0.31733793020248413, -0.02047138474881649, 0.13554607331752777, 0.14047594368457794, -0.20990632474422455, 0.10328937321901321, 0.06271146237850189, 0.0908316969871521, -0.16004066169261932, 0.19440513849258423, -0.29214000701904297, -0.05490865930914879, 0.22338227927684784, 0.10868752002716064, -0.07075751572847366, -0.03308384492993355, 0.18247205018997192, -0.31075960397720337, 0.16376371681690216, 0.050668735057115555, -0.121781125664711, -0.24899305403232574, -0.30818939208984375, 0.3042820990085602
	  , 0.12139488756656647, -0.2828851342201233, -0.04702384024858475, 0.18721503019332886, -0.12426575273275375, 0.1394297331571579, 0.10720448940992355, -0.09085296839475632, 0.11700376868247986, 0.2684377133846283, 0.3227997422218323, -0.1797281950712204, -0.2629803717136383, 0.1391325294971466, -0.024931522086262703, -0.20619603991508484, -0.060286372900009155, -0.19537395238876343, 0.08328308165073395, 0.12341593950986862, 0.19822469353675842, 0.20572906732559204, -0.09793882071971893, -0.3021145462989807, -0.20395781099796295, -0.048658598214387894, -0.029499055817723274, -0.1061691865324974, 0.002534737577661872, 0.041771695017814636, 0.15747608244419098, 0.06612489372491837
	  , 0.04607495665550232, -0.22871354222297668, 0.028250986710190773, 0.05668409913778305, 0.21622395515441895, 0.09935960173606873, -0.24174129962921143, -0.17483459413051605, -0.41795843839645386, -0.041718579828739166, 0.1288035809993744, -0.1304038166999817, -0.10483289510011673, 0.09574325382709503, 0.3854464292526245, -0.13964645564556122, -0.22615863382816315, -0.15306152403354645, 0.30644938349723816, -0.22260017693042755, 0.31764277815818787, 0.004391721915453672, -0.020039690658450127, -0.13994181156158447, 0.010694900527596474, -0.40755289793014526, -0.14877133071422577, -0.40761059522628784, -0.010734553448855877, 0.07938152551651001, -0.0615585558116436, -0.1695576161146164
	  , 0.015213672071695328, -0.3677841126918793, 0.07653841376304626, -0.20627501606941223, -0.1069401428103447, 0.09772706031799316, 0.10034259408712387, -0.06576772779226303, -0.14425693452358246, 0.03944165259599686, -0.28189218044281006, -0.24599522352218628, -0.06305103749036789, -0.00837155245244503, 0.13184301555156708, -0.28761735558509827, 0.27974313497543335, -0.004673140123486519, -0.008095446042716503, 0.07003898173570633, -0.00699000246822834, -0.009347042068839073, -0.046343669295310974, -0.2706947326660156, 0.2489129602909088, -0.05137825012207031, -0.017512330785393715, -0.11944765597581863, 0.2166876643896103, -0.08574777841567993, -0.10278559476137161, -0.21201084554195404
	  , -0.0947112888097763, 0.24139325320720673, 0.17574238777160645, 0.30960994958877563, 0.08258886635303497, -0.01410516444593668, -0.005401821341365576, 0.18577153980731964, -0.18956658244132996, 0.25581085681915283, 0.024425698444247246, 0.2872931659221649, 0.11415143311023712, -0.15629762411117554, 0.08682141453027725, 0.4053341746330261, 0.29036828875541687, 0.4002700448036194, -0.09625539928674698, -0.16023124754428864, -0.19760583341121674, -0.023861350491642952, 0.007069227751344442, -0.14620883762836456, -0.10448893904685974, 0.02126850001513958, 0.10203016549348831, -0.1513110101222992, -0.2666211724281311, 0.08435758203268051, 0.12124886363744736, 0.16589392721652985
	  , -0.19512814283370972, 0.13996648788452148, -0.023045910522341728, -0.26546353101730347, 0.24570660293102264, 0.1068543940782547, 0.46358224749565125, 0.4430007338523865, -0.2130000740289688, 0.3828755021095276, -0.13132381439208984, 0.12467202544212341, -0.15136075019836426, 0.031179511919617653, 0.13470816612243652, 0.2695615887641907, -0.14349111914634705, -0.01213366724550724, -0.3328605890274048, -0.005115422885864973, -0.023757532238960266, 0.23825226724147797, 0.4122421145439148, -0.41271737217903137, -0.28612029552459717, -0.3611205816268921, -0.38958990573883057, -0.21115878224372864, -0.15438871085643768, 0.09283305704593658, 0.16727213561534882, -0.14970369637012482
	  , 0.08634965866804123, 0.02698882669210434, -0.2958216071128845, 0.29737329483032227, 0.2800557017326355, -0.03448796644806862, -0.3779318034648895, -0.21030454337596893, -0.18111376464366913, 0.2003261297941208, -0.3842255771160126, -0.08931489288806915, -0.029831813648343086, 0.0948939099907875, 0.0024974180851131678, 0.2887667715549469, 0.028647558763623238, 0.015190044417977333, -0.12024103850126266, 0.3552716076374054, -0.019838927313685417, 0.3788638114929199, -0.135628804564476, 0.10308906435966492, 0.39157336950302124, -0.04880914464592934, -0.10603276640176773, -0.20250774919986725, -0.049848735332489014, -0.23173844814300537, -0.2340715527534485, -0.21135397255420685
	  , -0.0055230604484677315, 0.10650599747896194, -0.34434282779693604, -0.3241872787475586, 0.07458434998989105, -0.44965845346450806, 0.17311307787895203, 0.07972206920385361, 0.019398918375372887, 0.09848212450742722, 0.0341557115316391, -0.18027915060520172, 0.24700595438480377, 0.09667147696018219, 0.3679288625717163, 0.23894309997558594, -0.1331169605255127, -0.19049789011478424, 0.30124911665916443, 0.30473336577415466, 0.319415807723999, 0.0586920790374279, -0.16044744849205017, -0.23552305996418, 0.35613706707954407, 0.254224568605423, 0.2772914171218872, 0.17954732477664948, 0.06116539612412453, 0.12039636075496674, 0.1629323810338974, 0.07389228045940399
	  , 0.12145466357469559, 0.2502623200416565, -0.03799813985824585, 0.19180889427661896, 0.05545701086521149, -0.08177618682384491, 0.20699156820774078, 0.009366731159389019, 0.06711944192647934, 0.30307817459106445, 0.045004334300756454, -0.06999986618757248, -0.08269251883029938, 0.06308522820472717, -0.07976182550191879, -0.08605527132749557, 0.25728002190589905, 0.3321099281311035, -0.08847716450691223, 0.11430468410253525, 0.02455424889922142, 0.17469018697738647, 0.04840097576379776, 0.03310123831033707, 0.10011377185583115, 0.06727556139230728, 0.03336288407444954, -0.024032317101955414, -0.07262350618839264, -0.10035241395235062, 0.04713727906346321, -0.35637322068214417
	  , 0.15596787631511688, 0.12022040784358978, 0.2742425203323364, 0.147452712059021, 0.05830518901348114, -0.1388172209262848, 0.04791916906833649, -0.435371994972229, -0.2409779131412506, 0.01030473131686449, 0.18869160115718842, -0.1350429803133011, -0.15978527069091797, 0.052226416766643524, 0.1779402494430542, -0.012720836326479912, 0.003166052745655179, 0.04416283220052719, 0.24982613325119019, 0.11078504472970963, 0.38495951890945435, -0.33227160573005676, 0.2887965440750122, -0.24869763851165771, 0.15654940903186798, -0.011657608672976494, -0.09332240372896194, 0.1482437700033188, -0.47289714217185974, 0.06540427356958389, 0.24153679609298706, -0.29662731289863586
	  , -0.26840752363204956, 0.2546621859073639, 0.2997870147228241, 0.09930232167243958, -0.04001520946621895, 0.199698805809021, 0.024952193722128868, -0.0974334329366684, -0.3078218102455139, -0.017979951575398445, 0.14648540318012238, -0.19346821308135986, 0.3623703420162201, 0.3325294256210327, -0.08270914852619171, 0.09480996429920197, -0.06471315771341324, 0.001377753564156592, 0.2665814757347107, 0.20816859602928162, -0.3446285128593445, 0.3209208548069, -0.5571525692939758, 0.25426536798477173, -0.12331025302410126, -0.698474109172821, 0.26678118109703064, 0.5312203168869019, 0.2032964676618576, -0.6251999735832214, -0.23405082523822784, 0.08363602310419083
	  , -0.07789206504821777, 0.40766263008117676, 0.19863247871398926, 0.12301596254110336, -0.37371307611465454, 0.23374132812023163, 0.6134486794471741, 0.1866161823272705, 0.07345878332853317, -0.6108145713806152, -0.11730770766735077, 0.23214976489543915, -0.08380471169948578, -0.5791603326797485, 0.25334224104881287, -0.09845651686191559, -0.23265278339385986, -0.08111290633678436, 0.03335684537887573, 0.38522040843963623, 0.3214300274848938, 0.25988152623176575, -0.0720626637339592, -0.12784619629383087, 0.47950854897499084, 0.026982715353369713, -0.4442261755466461, -0.21152549982070923, 0.4473778307437897, 0.4076542556285858, -0.2774898111820221, 0.32571813464164734
	  , -0.026068083941936493, -0.12237918376922607, 0.03295465186238289, 0.2537437677383423, 0.15856149792671204, -1.236330270767212, -0.05574534460902214, -0.14587265253067017, -0.2725972831249237, 0.30177485942840576, 0.13962240517139435, 0.26164335012435913, 0.0366034209728241, 0.021605025976896286, 0.2896815538406372, 0.0707230269908905, 0.07255714386701584, -0.1809844672679901, -0.17828695476055145, -0.05820910632610321, -0.013569191098213196, 0.004869882483035326, 0.10927439481019974, -0.4184575378894806, 0.2930845618247986, -0.2974313795566559, -0.03480244055390358, -0.4652020037174225, -0.19576723873615265, 0.04124796390533447, 0.3342849314212799, -0.12591591477394104
	  , -0.1534719467163086, 0.0527334064245224, 0.20650950074195862, -0.2334458976984024, -0.16731616854667664, -0.09012717753648758, 0.005079003516584635, 0.06068217009305954, -0.08497586846351624, 0.11034416407346725, 0.09200786054134369, 0.21347804367542267, -0.19757378101348877, 0.08288468420505524, -0.1729072630405426, -0.12094929069280624, -0.43952620029449463, 0.20751000940799713, -0.03406486660242081, 0.02585442177951336, 0.17400705814361572, 0.2494012862443924, -0.09476175904273987, 0.25062283873558044, -0.1815302073955536, -0.04911163076758385, -0.22516679763793945, 0.11584941297769547, -0.03474846109747887, 0.024451445788145065, -0.2226792573928833, 0.08928199112415314
	  , 0.21762511134147644, 0.4016895294189453, 0.24687105417251587, 0.006958927493542433, -0.26543644070625305, -0.023378729820251465, 0.09066487103700638, 0.027475761249661446, -0.07087983936071396, -0.004245559219270945, -0.2748485207557678, -0.09672655910253525, -0.015135795809328556, -0.009425770491361618, -0.08301988244056702, 0.21422162652015686, -0.18822568655014038, -0.3132019639015198, 0.12014832347631454, 0.09183798730373383, -0.23511329293251038, -0.31113359332084656, 0.19903802871704102, 0.25948503613471985, 0.02204369567334652, -0.3639625906944275, -0.14289423823356628, -0.040870726108551025, -0.3029480576515198, 0.36404111981391907, 0.28283512592315674, 0.1840001791715622
	  , 0.11812236160039902, 0.006393586751073599, 0.14837311208248138, 0.126821830868721, -0.0104743717238307, 0.0943283811211586, -0.14763349294662476, 0.10231022536754608, -0.2386723756790161, 0.3026001453399658, -0.1741189956665039, 0.18489693105220795, -0.22859326004981995, 0.019274339079856873, 0.3350255787372589, -0.24872808158397675, -0.19485105574131012, 0.08198778331279755, -0.07266830652952194, -0.3292202651500702, 0.1474258005619049, 0.16241402924060822, -0.1038232147693634, -0.18299600481987, 0.1415749192237854, -0.23960360884666443, -0.18527093529701233, -0.09567759186029434, -0.35511234402656555, -0.19733236730098724, 0.16151125729084015, 0.30978840589523315
	  , -0.09665961563587189, 0.007856092415750027, -0.1086682602763176, 0.11538559943437576, 0.16604453325271606, -0.1399729996919632, -0.04886569082736969, 0.06957279145717621, -0.14932404458522797, -0.11898893117904663, 0.2547943890094757, 0.12168121337890625, 0.19675838947296143, 0.12903012335300446, 0.2536894381046295, -0.035119082778692245, 0.2343449741601944, 0.38246893882751465, 0.25822749733924866, -0.15733173489570618, -0.06730172783136368, -0.12727220356464386, 0.15054823458194733, -0.28528445959091187, 0.17043693363666534, 0.15327025949954987, -0.27705714106559753, -0.11847294867038727, -0.3241645395755768, -0.15699955821037292, 0.28624439239501953, 0.17569033801555634
	  , 0.0903075784444809, -0.26837214827537537, -0.1665581613779068, 0.020610373467206955, 0.027754491195082664, 0.03678169474005699, -0.019804000854492188, 0.031729210168123245, 0.1014537364244461, 0.0670306533575058, -0.10099540650844574, 0.46551886200904846, -0.2543395161628723, -0.06652902066707611, 0.015382013283669949, -0.13934606313705444, 0.07696235924959183, -0.18309591710567474, 0.06001840904355049, -0.008398367092013359, -0.28398409485816956, 0.14379829168319702, -0.09889884293079376, 0.15738126635551453, -0.00649553257972002, -0.03383074328303337, 0.2206295132637024, 0.19273915886878967, 0.0297751035541296, 0.1618516743183136, 0.10972809046506882, 0.08437548577785492
	  , -0.18599830567836761, 0.016263673081994057, 0.22336582839488983, -0.05478241667151451, 0.24735376238822937, 0.0721481442451477, -0.2616037428379059, -0.2507501542568207, 0.14128895103931427, -0.046710558235645294, -0.23889067769050598, 0.026313982903957367, 0.234650120139122, -0.11708174645900726, -0.046436332166194916, -0.19824494421482086, -0.25214684009552, 0.14658479392528534, 0.23371362686157227, -0.10620575398206711, -0.0429617241024971, -0.054083868861198425, 0.3228786587715149, -0.004275461193174124, -0.22855880856513977, 0.08946429938077927, -0.1284981518983841, -0.20966500043869019, -0.08985549956560135, 0.3350246846675873, 0.08442728221416473, 0.07604749500751495
	  , 0.18504400551319122, 0.0002379872021265328, -0.10501625388860703, -0.11175242066383362, 0.3173653483390808, 0.014734843745827675, -0.2615572512149811, 0.11195860803127289, 0.10207922756671906, -0.3285673260688782, 0.12238473445177078, -0.058395106345415115, -0.20131373405456543, 0.3057565987110138, 0.08707558363676071, -0.26452332735061646, -0.26117125153541565, -0.23656082153320312, -0.15521009266376495, 0.12470503896474838, 0.1554870456457138, 0.27108079195022583, 0.009053380228579044, -0.20788469910621643, -0.02489454485476017, -0.3155100345611572, 0.04289695620536804, -0.1347387135028839, 0.13186578452587128, 0.11747831851243973, -0.002525035757571459, 0.04585837945342064
	  , 0.16939677298069, -0.08042708039283752, 0.030959729105234146, -0.03535640239715576, 0.11514462530612946, 0.0275473240762949, -0.19833582639694214, -0.08441223204135895, -0.18739674985408783, -0.13010333478450775, 0.4788726270198822, -0.12527714669704437, -0.3350869417190552, 0.12653686106204987, 0.08933146297931671, 0.09735715389251709, -0.10773281008005142, -0.07406985759735107, 0.08441034704446793, 0.22019723057746887, 0.1745283007621765, 0.13601890206336975, -0.007034669164568186, 0.032894816249608994, -0.22954398393630981, 0.07647471874952316, -0.06555426120758057, 0.08753682672977448, 0.07553742080926895, 0.2450619637966156, -0.09252690523862839, -0.17447416484355927
	  , 0.10728209465742111, 0.2635020911693573, -0.06182276830077171, 0.001921902410686016, 0.13595005869865417, 0.056297753006219864, 0.10185101628303528, -0.28803399205207825, 0.11927526444196701, 0.030795255675911903, 0.26825323700904846, -0.05375080928206444, 0.24141450226306915, -0.2250523865222931, -0.015145395882427692, 0.25010791420936584, -0.40566036105155945, 0.3101053833961487, -0.2310790717601776, -0.06024688854813576, 0.05673354119062424, 0.3392244577407837, 0.12279340624809265, 0.05664742738008499, -0.1224847361445427, -0.17009314894676208, 0.013651404529809952, -0.012120185419917107, -0.19181418418884277, -0.15732261538505554, 0.0339571051299572, -0.2390698492527008
	  , -0.0815431997179985, 0.14497563242912292, 0.00854779127985239, 0.08443792164325714, 0.1065828949213028, -0.05324789509177208, -0.07212330400943756, 0.028984276577830315, -0.3800389766693115, -0.06816460937261581, 0.0959598496556282, -0.26418420672416687, -0.03696677088737488, 0.14158518612384796, 0.2616705000400543, 0.09240401536226273, -0.2508160173892975, -0.11000026017427444, -0.056199636310338974, -0.14824658632278442, -0.19323638081550598, 0.03552727401256561, 0.30933988094329834, -0.00020088974270038307, -0.11283465474843979, 0.0325908362865448, 0.06523022055625916, 0.20487481355667114, 0.03510501980781555, 0.29423263669013977, -0.05250966548919678, 0.031030740588903427
	  , -0.17707909643650055, -0.2287011593580246, -0.0014766714302822948, -0.05708521604537964, -0.2833735942840576, -0.006790677551180124, 0.1215432733297348, -0.4730371832847595, 0.26465970277786255, -0.09309806674718857, -0.09435263276100159, 0.12996895611286163, 0.03649987280368805, -0.145391583442688, -0.020713521167635918, 0.30283427238464355, -0.04231075569987297, -0.2026406079530716, -0.0766788050532341, 0.1387157142162323, -0.23506642878055573, -0.1461402028799057, -0.19527296721935272, 0.20371507108211517, -0.3233341872692108, 0.3008470833301544, -0.07896572351455688, 0.02247353084385395, 0.05681057274341583, -0.09592536091804504, -0.03760996460914612, 0.31603026390075684
	};

	float feature_extraction_block_feature_extraction_b[32] =
	{ 0.010715804994106293, 0.020598141476511955, 0.011831327341496944, 0.031276386231184006, -0.0012174625881016254, 0.1040099486708641, 0.024724174290895462, -0.11091650277376175, -0.15152375400066376, 0.06866075843572617, 0.01473513338714838, 0.00348076899535954, -0.11643417179584503, 0.03826971352100372, -0.03428934887051582, 0.038830459117889404, -0.1471797525882721, 0.007563180290162563, 0.005278891883790493, 0.00518824253231287, -0.004191352520138025, 0.007141916546970606, 0.022552281618118286, -0.12929116189479828, 0.03535563871264458, -0.13900552690029144, -0.0370272621512413, -0.09236975014209747, -0.08066719025373459, 0.023636866360902786, 0.0020331311970949173, 0.01621767319738865 };

	float shrinking_block_alpha1[32] =
	{ 1.0804804563522339, 1.2184685468673706, 1.0533777475357056, 1.0014781951904297, 0.689110279083252, 0.23326461017131805, 0.9526000022888184, 0.22942151129245758, 0.22005514800548553, 1.025184154510498, 0.9246801137924194, 1.0487500429153442, 0.18762071430683136, 1.013546109199524, 1.1243751049041748, 1.0001726150512695, 0.25508588552474976, 0.9399517774581909, 1.1426703929901123, 1.0509812831878662, 0.9458639621734619, 1.0268993377685547, 1.3253743648529053, 0.27632254362106323, 1.0351365804672241, 0.24779678881168365, 0.2708994150161743, 0.33053770661354065, 0.2403193563222885, 1.0158977508544922, 1.1193442344665527, 1.0064480304718018 };

	float shrinking_block_shrinking_w[1 * 1 * 32 * 5] =
	{ 0.007221538573503494, 0.08023013174533844, -0.15513230860233307, 0.22568756341934204, -0.20578813552856445
	  , 0.05917539820075035, 0.13136014342308044, 0.08002813160419464, -0.18617339432239532, 0.19164109230041504
	  , 0.30421552062034607, 0.1783965826034546, 0.08372149616479874, -0.31173160672187805, 0.03336571529507637
	  , 0.283589631319046, 0.0793515294790268, 0.30653390288352966, 0.12476857751607895, -0.1527942419052124
	  , 0.23609265685081482, 0.25773748755455017, -0.16223783791065216, -0.10732477903366089, -0.0924360454082489
	  , -0.2160288691520691, 0.10321638733148575, 0.24101628363132477, -0.3035939931869507, 0.09643609076738358
	  , 0.2942427098751068, 0.2611694931983948, 0.24459946155548096, 0.24671342968940735, 0.2272530496120453
	  , 0.05727985501289368, -0.1551574170589447, 0.24831914901733398, -0.27534765005111694, 0.3141767978668213
	  , -0.38744035363197327, -0.3194201588630676, -0.11165289580821991, -0.022975262254476547, 0.015483267605304718
	  , -0.2809726893901825, -0.18867497146129608, -0.22842438519001007, -0.22166581451892853, 0.005283575505018234
	  , 0.11975749582052231, -0.24212147295475006, -0.0514451339840889, -0.11558619886636734, 0.1898600459098816
	  , -0.02154119499027729, -0.23252925276756287, 0.09591777622699738, 0.1376732885837555, -0.1910313367843628
	  , 0.031329818069934845, 0.13454662263393402, 0.011277902871370316, -0.32757341861724854, 0.23057858645915985
	  , -0.3628714382648468, -0.10044699162244797, -0.3753845691680908, -0.14608173072338104, 0.010453975759446621
	  , 0.1300676167011261, -0.2359561175107956, -0.00833277590572834, 0.004477453883737326, 0.11696592718362808
	  , -0.2923290431499481, 0.21588392555713654, -0.03561568632721901, 0.06518839299678802, -0.189447283744812
	  , 0.08627323061227798, 0.1066194623708725, -0.34442004561424255, 0.15823955833911896, -0.06342159956693649
	  , -0.012275981716811657, -0.007883434183895588, -0.1219053640961647, 0.10627672076225281, -0.09040253609418869
	  , 0.18422304093837738, 0.287662148475647, -0.022440942004323006, -0.12049856781959534, 0.01526246964931488
	  , 0.1931077390909195, -0.1098848432302475, 0.1674085557460785, -0.1450682431459427, -0.11136309057474136
	  , -0.05249657481908798, 0.043236859142780304, 0.25334686040878296, 0.2989956736564636, 0.14798015356063843
	  , 0.1385260969400406, 0.35247454047203064, 0.2692878544330597, 0.03017735853791237, -0.15297353267669678
	  , -0.0798620879650116, -0.2288132756948471, 0.021557850763201714, 0.33480745553970337, 0.017247656360268593
	  , -0.09971723705530167, 0.11652495712041855, -0.012688437476754189, -0.2740872800350189, 0.036511849611997604
	  , 0.1316051334142685, -0.12261446565389633, 0.11625874787569046, 0.059543050825595856, -0.19060911238193512
	  , 0.15109099447727203, -0.32583096623420715, 0.0035577358212321997, 0.34693777561187744, -0.0035685556940734386
	  , 0.04120532423257828, 0.07128256559371948, -0.16098709404468536, -0.17313696444034576, -0.13749776780605316
	  , 0.16402360796928406, -0.11490480601787567, -0.02235248312354088, -0.43867501616477966, 0.2864586412906647
	  , 0.12007354944944382, 0.4418134093284607, 0.20586679875850677, -0.1822611540555954, -0.11565905809402466
	  , -0.11222130060195923, -0.12467391043901443, 0.19633617997169495, 0.1899401843547821, 0.0580785870552063
	  , -0.00608134875074029, -0.10756964236497879, -0.22321344912052155, 0.0934109091758728, -0.06847105920314789
	  , 0.3474719524383545, 0.07278645783662796, -0.03968540206551552, 0.1374669373035431, -0.020157823339104652
	};

	float shrinking_block_shrinking_b[5] =
	{ -0.009524735622107983, 0.0004364229098428041, 0.010682282038033009, 0.018875539302825928, -0.003148084506392479 };

	float mapping_block_w3[3 * 3 * 5 * 5] =
	{ -0.14465682208538055, 0.24759791791439056, 0.11029601842164993, -0.17108631134033203, 0.30891212821006775
	  , -0.046724364161491394, 0.11584348231554031, 0.008369614370167255, -0.05188869684934616, -0.06813858449459076
	  , -0.31921812891960144, 0.04143315553665161, 0.05914923921227455, 0.08280397206544876, -0.22068572044372559
	  , 0.041359588503837585, 0.35698649287223816, 0.09520982950925827, 0.06763250380754471, 0.24906472861766815
	  , 0.02233700267970562, 0.10293162614107132, -0.02677481807768345, 0.07335260510444641, -0.059636861085891724
	  , 0.13054616749286652, 0.1443125307559967, 0.08135213702917099, 0.17935170233249664, 0.0024462768342345953
	  , -0.4690343737602234, 0.1551220417022705, 0.027504172176122665, -0.2182266265153885, -0.08196401596069336
	  , -0.1837649643421173, -0.016645340248942375, 0.03503691032528877, -0.3131439685821533, -0.010519039817154408
	  , 0.10426398366689682, 0.02952083945274353, -0.15125837922096252, 0.15795058012008667, 0.18648730218410492
	  , 0.1883600950241089, 0.022785361856222153, -0.0427115298807621, 0.26628968119621277, -0.280201256275177
	  , 0.008726222440600395, 0.08893919736146927, 0.08547358214855194, 0.06517714262008667, -0.24121467769145966
	  , -0.1266033798456192, 0.03593461588025093, 0.11234387010335922, -0.070832759141922, -0.27099689841270447
	  , -0.266227126121521, -0.05298760160803795, -0.07014035433530807, 0.1519020050764084, 0.034205079078674316
	  , -0.017287665978074074, 0.08649398386478424, 0.04837585985660553, -0.029447346925735474, 0.16173523664474487
	  , -0.3098239600658417, 0.13294938206672668, 0.06122124567627907, 0.1793714165687561, 0.10347851365804672
	  , 0.14656978845596313, -0.010806789621710777, 0.02518487721681595, -0.1392027586698532, -0.08217745274305344
	  , -0.2153513878583908, -0.07180841267108917, -0.09665040671825409, -0.10401251912117004, -0.17407193779945374
	  , 0.3035028278827667, -0.10994615405797958, -0.22925662994384766, 0.21712782979011536, 0.058660976588726044
	  , 0.16605141758918762, -0.1723872274160385, -0.2229567915201187, -0.1959816813468933, 0.16898423433303833
	  , 0.34458237886428833, 0.08988502621650696, -0.2619766891002655, 0.11402060091495514, 0.24121476709842682
	  , -0.028012489899992943, -0.03904574736952782, 0.2535232901573181, -0.19221539795398712, 0.09860962629318237
	  , 0.1996995359659195, 0.01649421639740467, -0.002988985739648342, 0.012582996860146523, 0.023099292069673538
	  , 0.2301654815673828, -0.10009663552045822, 0.3523772656917572, -0.023673422634601593, 0.18738962709903717
	  , 0.036105819046497345, 0.028754521161317825, 0.1727389544248581, -0.285477876663208, 0.006694387644529343
	  , -0.11467528343200684, -0.31017005443573, -0.17149704694747925, 0.007842217572033405, 0.2522619664669037
	  , 0.2238786816596985, 0.03887210786342621, -0.04677612707018852, -0.25013720989227295, -0.16060678660869598
	  , 0.048422813415527344, -0.03751995041966438, 0.06507178395986557, 0.15349286794662476, 0.002865899121388793
	  , -0.09449905157089233, 0.05912232771515846, -0.1356309950351715, 0.01595909334719181, 0.023557892069220543
	  , -0.37447118759155273, 0.008648543618619442, 0.09367059171199799, 0.03623142093420029, 0.17727825045585632
	  , -0.1555992066860199, -0.16914072632789612, -0.06936944276094437, 0.18540890514850616, -0.26753658056259155
	  , 0.14116732776165009, -0.09937147051095963, -0.044516175985336304, 0.01217974629253149, -0.3192999064922333
	  , -0.07807544618844986, 0.008441587910056114, 0.008465454913675785, 0.0769864171743393, 0.11308284103870392
	  , -0.1651684194803238, -0.2029227465391159, -0.08435830473899841, -0.04402635991573334, -0.27288973331451416
	  , -0.004176210146397352, -0.03367302566766739, -0.10914409160614014, -0.15424507856369019, -0.10204770416021347
	  , -0.20721913874149323, -0.03435757756233215, -0.10763730853796005, 0.1807428002357483, -0.16012640297412872
	  , -0.05455183610320091, 0.32958993315696716, -0.0058122724294662476, -0.21691949665546417, -0.1903139054775238
	  , -0.025855816900730133, 0.13077805936336517, -0.0898151844739914, 0.043644148856401443, -0.31871119141578674
	  , -0.11887238919734955, 0.30637866258621216, 0.14863631129264832, -0.031080592423677444, -0.16797052323818207
	  , -0.08067552000284195, 0.06212660297751427, -0.1086931973695755, 0.1583688110113144, 0.056483928114175797
	  , -0.29745709896087646, 0.08369291573762894, -0.11739586293697357, -0.317585289478302, 0.23031362891197205
	  , 0.011031904257833958, 0.12540192902088165, -0.03527340665459633, -0.09546923637390137, -0.17249737679958344
	  , -0.12159976363182068, 0.10270217061042786, 0.13029085099697113, -0.003185838460922241, 0.08504901826381683
	  , 0.01881055161356926, -0.1601666957139969, -0.05727412551641464, -0.0893416553735733, -0.12159324437379837
	  , 0.027400517836213112, 0.019200319424271584, 0.02976301498711109, -0.10053399205207825, 0.11720427870750427
	  , 0.007962769828736782, -0.050687335431575775, -0.016944512724876404, -0.031447071582078934, -0.3087973892688751
	};

	float mapping_block_b3[5] =
	{ -0.01781354658305645, 0.027764271944761276, -0.03856290131807327, -0.0882478579878807, -0.14914542436599731 };

	float mapping_block_alpha4[5] =
	{ 0.45759227871894836, 1.0085422992706299, 1.1650930643081665, 0.21070252358913422, 0.26404619216918945 };

	float mapping_block_w4[1 * 1 * 5 * 5] =
	{ -0.39119672775268555, 0.8345208764076233, 0.022847989574074745, -0.16565479338169098, -0.8316508531570435
	  , -0.109792560338974, 0.482116162776947, -0.5599596500396729, -0.041641198098659515, -0.9542741179466248
	  , -0.4120836853981018, 0.5388681888580322, 0.6753488183021545, 0.028698373585939407, 0.8414109945297241
	  , 0.8404096961021423, 0.5448833107948303, -0.4063117802143097, 0.32079869508743286, -0.2380659282207489
	  , 0.2093522548675537, -0.7027156949043274, 0.44040045142173767, -0.305002361536026, 0.5603541135787964
	};

	float mapping_block_b4[5] =
	{ 0.017489148303866386, -0.032068297266960144, 0.02805415540933609, -0.015705257654190063, -0.06532450765371323 };

	float alpha2[5] =
	{ 0.9244085550308228, 0.6811956763267517, 1.325482726097107, 1.3429827690124512, 0.2689400911331177 };

	float expanding_block_w5[1 * 1 * 5 * 32] =
	{ -0.4198625981807709, 0.01109823677688837, -0.9033699631690979, 0.19876745343208313, -0.08134055882692337, -0.9370052814483643, 0.25593870878219604, 0.20364028215408325, -0.4025419354438782, -0.45470547676086426, -0.9410557746887207, 0.33209583163261414, -0.9724919199943542, 0.2866533398628235, -0.6855208873748779, 0.2853688597679138, 1.3441184759140015, -0.9950535297393799, -0.4660724103450775, 0.1377481371164322, -0.1287207305431366, -0.3506893217563629, -0.06799447536468506, -0.6000402569770813, 0.3139672875404358, 0.6970693469047546, -0.565471351146698, 0.9113120436668396, 0.4597927927970886, -0.8882198333740234, 0.17672893404960632, 0.26086074113845825
	  , -0.021421248093247414, 0.6526688933372498, 0.4955691695213318, 0.07196251302957535, -0.5751168727874756, 0.08496854454278946, 0.0684441477060318, 0.5852373838424683, 0.07419023662805557, 0.44129133224487305, -0.6003341674804688, -0.3124151825904846, -0.092506542801857, 0.5343426465988159, 0.5487253069877625, 0.19876573979854584, -0.16809393465518951, 0.694033145904541, -0.04964018613100052, -0.5766866207122803, -0.2834412753582001, -0.27181199193000793, 0.6313349604606628, -0.16933821141719818, 0.027042919769883156, 0.06689030677080154, 0.20531029999256134, 0.11852637678384781, -0.7663750648498535, -0.16538174450397491, 0.6768970489501953, -0.9583740234375
	  , -0.5050592422485352, 0.19290868937969208, -0.4101736843585968, 0.7154703140258789, 0.5746449828147888, 0.4674695134162903, 0.008141006343066692, -0.281541109085083, 0.9250470399856567, 0.6062392592430115, -0.3439074158668518, 0.5930519700050354, -0.04753592237830162, -0.08335216343402863, 0.04613923281431198, 0.21009327471256256, -0.7134186029434204, 0.036020632833242416, -0.6864675283432007, -0.014938633888959885, -0.39254218339920044, -0.44467076659202576, -0.8970887064933777, 0.4475044012069702, -1.0695385932922363, 0.9996120929718018, 0.4899612069129944, 0.2250097543001175, 0.8336673974990845, 0.28549855947494507, 0.8861370086669922, -0.8472945094108582
	  , -0.6185239553451538, 0.05543060228228569, 0.5383895039558411, -0.1587541550397873, -0.3747479319572449, 0.3170420527458191, 0.4966162145137787, 0.2751619815826416, 1.0617923736572266, -0.1675305962562561, 0.16458244621753693, -0.05285842344164848, 0.34463757276535034, 0.48535895347595215, 0.46904775500297546, 0.4639527201652527, -0.4484010338783264, 0.07231251150369644, -0.6154471635818481, 0.5675749182701111, 0.4180993139743805, 0.23602811992168427, -0.1613011509180069, 1.010438084602356, -0.28014829754829407, 0.41379258036613464, 0.019102921709418297, -0.8769687414169312, 0.26370882987976074, 1.0426709651947021, -0.21839679777622223, -0.23789484798908234
	  , 0.5868973135948181, -0.015519923530519009, 0.6840271353721619, 0.15606571733951569, -0.6234114170074463, 0.15832707285881042, -0.8093438744544983, -0.3107907772064209, -0.11929885298013687, 0.6882033944129944, -0.405801385641098, 0.7152705788612366, -0.16922512650489807, -0.2860860228538513, -0.7430877089500427, -0.21537306904792786, -0.24159133434295654, 0.9810048341751099, 0.11625556647777557, -0.8717058300971985, -1.1476166248321533, -0.1847994029521942, 0.0150611512362957, -0.03417738527059555, -0.0002754380111582577, -0.349492609500885, -0.231408029794693, -0.8062775731086731, 0.5562170147895813, 0.06479588150978088, -0.5102524757385254, -0.32937437295913696
	};

	float expanding_block_b5[32] =
	{ -0.027554716914892197, 0.0008004714618436992, 0.07811068743467331, -0.00830212514847517, -0.0567440502345562, -0.06387807428836823, -0.1219387874007225, -0.03139805421233177, -0.07228788733482361, -0.07085257023572922, -0.040148962289094925, -0.009418905712664127, -0.02252155914902687, -0.020022962242364883, -0.016091782599687576, 0.0016291053034365177, -0.011526971124112606, -0.007778042461723089, 0.04134431481361389, -0.002049606293439865, -0.0478757843375206, 0.00863043125718832, 0.03167927265167236, 0.02649005502462387, 0.12506103515625, -0.03718500956892967, -0.04311966150999069, -0.11420667171478271, -0.004480323288589716, -0.05294463038444519, 0.021905241534113884, 0.012365114875137806 };

	float expanding_block_alpha5[32] =
	{ 0.28274035453796387, -0.6956191658973694, 0.8576210141181946, -0.15795761346817017, 0.277168333530426, 0.02378084696829319, 0.677790105342865, 0.8904879093170166, 0.3178858160972595, -1.0006659030914307, 0.24378566443920135, 0.23464250564575195, 0.2381649762392044, 1.2350497245788574, 1.1790871620178223, -0.6355348825454712, 0.10079396516084671, 1.7230297327041626, 0.27736541628837585, 0.14286723732948303, 0.10107340663671494, 0.22641198337078094, 0.006925941910594702, 1.8919538259506226, 0.14233270287513733, -0.2107563018798828, -0.815797746181488, -0.821113646030426, 0.1155463308095932, -0.11938108503818512, 0.3077511489391327, 0.2085159420967102 };

	float deconvolution_block_deconv_w[3 * 3 * 32 * 4] =
	{ -0.004016594961285591, -0.04897158220410347, -0.02833423763513565, -0.03793935850262642
	  , 0.008015130646526814, -0.007384967524558306, 0.00010311044752597809, 0.004331905860453844
	  , 0.036731768399477005, 0.0183272548019886, 0.008000101894140244, 0.03384585678577423
	  , -0.005932611413300037, 0.0015895856777206063, -0.01277137827128172, -0.01617201790213585
	  , -0.054383255541324615, 0.02091149054467678, -0.04577116295695305, 0.023257732391357422
	  , -0.006320102605968714, 0.0339166484773159, 0.015403502620756626, 0.0050326320342719555
	  , -0.01988350786268711, 0.0535641573369503, -0.04999809339642525, 0.003872017376124859
	  , 0.0017528660828247666, 0.00041440105997025967, 0.0023003392852842808, 0.0066215116530656815
	  , 0.007946069352328777, -0.018650654703378677, 0.0014549031620845199, 0.011106186546385288
	  , 0.001162514672614634, -0.00516798859462142, 0.002266411203891039, -0.013111251406371593
	  , -0.04488410800695419, 0.026762066408991814, -0.005203605629503727, -0.0035693859681487083
	  , -0.09832677990198135, 0.011608577333390713, -0.0474512092769146, 0.0005602552555501461
	  , 0.007324352394789457, -0.029543785378336906, 0.020031262189149857, -0.02728201635181904
	  , 0.007192330434918404, 0.012319942004978657, 0.014839330688118935, 0.002901555271819234
	  , -0.036128342151641846, 0.031272027641534805, -0.005189108662307262, 0.025600479915738106
	  , -0.005540364887565374, 0.01677442342042923, 0.012034290470182896, 0.01885811984539032
	  , 0.0036482831928879023, -0.01945146732032299, -0.02856317348778248, -0.0032179642003029585
	  , 0.0029830834828317165, -0.029575258493423462, 0.007725587114691734, -0.018970435485243797
	  , -0.024218173697590828, -0.02048759162425995, -0.015222611837089062, -0.029405642300844193
	  , -0.014060472138226032, -0.012490732595324516, -0.0009743864648044109, -0.01014734897762537
	  , -0.009489409625530243, -0.06017617881298065, 0.014666350558400154, 0.07405142486095428
	  , -0.029920993372797966, 0.039229173213243484, 0.009591728448867798, 0.015637489035725594
	  , -0.02695336565375328, 0.006153872702270746, -0.01035491656512022, -0.013933750800788403
	  , 0.0017010378651320934, -0.014584955759346485, -0.018711335957050323, -0.020036770030856133
	  , -0.0011951341293752193, 0.0015352607006207108, 0.030721159651875496, 0.0149510707706213
	  , 0.012091669254004955, 0.01116416696459055, 0.013789443299174309, 0.014891687780618668
	  , 0.0026548337191343307, 0.0009049127693288028, 0.004966624081134796, -0.013102118857204914
	  , 0.02421623282134533, -0.006183313671499491, 0.006719926372170448, -0.011684415861964226
	  , 0.10391277819871902, -0.0668376162648201, 0.005991177633404732, -0.03508990630507469
	  , -0.012300508096814156, 1.8944932890008204e-05, -0.027998732402920723, -0.003419466083869338
	  , 0.0005952547653578222, -0.0024230023846030235, -0.003470140276476741, -0.01026585977524519
	  , -0.011563937179744244, 0.006870707962661982, 0.009824873879551888, 0.0024257556069642305
	  , -0.030628830194473267, 0.03709886595606804, -0.03376493975520134, 0.008693860843777657
	  , 0.014949141070246696, -0.001138452091254294, -0.01188024040311575, -0.014214986935257912
	  , 0.03975310176610947, -0.05162285640835762, -0.001363036804832518, -0.06791944056749344
	  , -0.015657315030694008, -0.01929616741836071, 0.0567610077559948, 0.030669471248984337
	  , -0.049140073359012604, 0.005063492339104414, 0.019193025305867195, -0.017495736479759216
	  , -0.046854838728904724, -0.03271861746907234, 0.10901101678609848, 0.04289967566728592
	  , -0.020408857613801956, 0.010877576656639576, -0.001933713792823255, -0.006132643669843674
	  , 0.015900004655122757, 0.004130805376917124, 0.015223868191242218, 0.02345389313995838
	  , -0.02651313506066799, 0.015094464644789696, -0.019474897533655167, -0.028410129249095917
	  , 0.012146112509071827, -0.007840082049369812, 0.007436693180352449, 0.0076240720227360725
	  , -0.006854629144072533, -0.027299124747514725, 0.005217407364398241, 0.004642932675778866
	  , 0.0768701434135437, 0.028976285830140114, -0.23035919666290283, -0.1396331936120987
	  , 0.017690856009721756, -0.03667470067739487, -0.08134351670742035, -0.048594310879707336
	  , 0.024989381432533264, -0.010149577632546425, 0.021999796852469444, 0.005097688641399145
	  , 0.0022266749292612076, -0.005997760687023401, -0.009861436672508717, -0.012269807979464531
	  , 0.015457591973245144, 0.003418971784412861, 0.019983908161520958, 0.003134808735921979
	  , 0.0797371119260788, 0.03029906377196312, -0.08410527557134628, -0.07417667657136917
	  , -0.014174855314195156, 0.0043344381265342236, 0.04400235414505005, 0.03498315066099167
	  , -0.05333271622657776, -0.002244171453639865, -0.008535414934158325, 0.016372747719287872
	  , -0.02905590459704399, 0.036967795342206955, -0.026558734476566315, -0.033347345888614655
	  , -0.11221729218959808, 0.003860215423628688, 0.16291792690753937, 0.07183755934238434
	  , -0.012335142120718956, -0.08687569200992584, 0.05972106754779816, 0.018146270886063576
	  , -0.05525416135787964, 0.026601463556289673, 0.007375266868621111, 0.037211496382951736
	  , -0.009271779097616673, 0.05149121209979057, -0.0552937351167202, 0.003552763257175684
	  , -0.061953622847795486, -0.020369865000247955, 0.03644130006432533, 0.07760939747095108
	  , -0.014475121162831783, -0.009825039654970169, 0.031103286892175674, 0.019434809684753418
	  , 0.02160552144050598, 0.004088509827852249, -0.00529143400490284, 0.004997980315238237
	  , -0.03303595259785652, -0.0032101368997246027, -0.012959955260157585, 0.01602550409734249
	  , -0.05643593147397041, 0.07225142419338226, 0.03835415840148926, -0.00761021114885807
	  , 0.020905951038002968, 0.0690046027302742, -0.05222172290086746, -0.0085183409973979
	  , 0.0003852819208987057, 0.002480924827978015, -0.007313203532248735, 0.0011554070515558124
	  , -0.018434755504131317, -0.03649454563856125, 0.03386743366718292, 0.025443151593208313
	  , 0.04640946164727211, -0.0014284714125096798, 0.017130965366959572, -0.008162063546478748
	  , -0.005222651641815901, 0.0072497157379984856, 0.004409614950418472, -0.009820953942835331
	  , -0.020381374284625053, 0.06588958203792572, 0.005919366609305143, 0.008204145357012749
	  , 0.029119042679667473, -0.03852642700076103, 0.0432002916932106, 0.000675561954267323
	  , -0.027917707338929176, -0.051860932260751724, 0.0010022121714428067, 0.03782854601740837
	  , -0.006612769793719053, -0.0623023584485054, 0.03788856416940689, 0.10863829404115677
	  , 0.0015851787757128477, 0.0009266373817808926, -0.014874319545924664, 0.0323156900703907
	  , 0.0021696051117032766, 0.014314507134258747, -0.0239107608795166, -0.00609231973066926
	  , -0.03412719815969467, 0.0030109197832643986, -0.0034536696039140224, 0.007086831610649824
	  , 0.014884548261761665, -0.003569937776774168, -0.009425437077879906, -0.019080720841884613
	  , -0.02912561595439911, -0.02658098377287388, 0.0070747253485023975, 0.011959868483245373
	  , 0.055047016590833664, 0.03540254756808281, -0.0445207804441452, -0.0680103525519371
	  , -0.013524732552468777, 0.03945572301745415, -0.06007283180952072, -0.07266920804977417
	  , -0.003541906364262104, 0.016294078901410103, -0.012652409262955189, 0.0005593126988969743
	  , -0.015170369297266006, -0.008740546181797981, -0.0019533198792487383, 0.01050693541765213
	  , -0.013805264607071877, -0.013869966380298138, 0.004967193119227886, 0.014545808546245098
	  , -0.026522759348154068, 0.05293688550591469, -0.004031721036881208, -0.06479974836111069
	  , -0.023582227528095245, -0.048559654504060745, 0.05631663650274277, 0.040808241814374924
	  , 0.04362855106592178, -0.011246984824538231, -0.0060105472803115845, -0.0018320478266105056
	  , -0.03442439064383507, -0.05176636949181557, 0.0795006975531578, 0.07949008792638779
	  , -0.04622384533286095, -0.0320739783346653, 0.04630035161972046, 0.12209395319223404
	  , -0.05279820039868355, -0.036086853593587875, 0.0037489545065909624, 0.0347844697535038
	  , 0.027705810964107513, -0.07314641773700714, -0.017792915925383568, 0.01039346307516098
	  , 0.04491801559925079, -0.0013082035584375262, -0.008942353539168835, -0.03371349722146988
	  , -0.009357110597193241, 0.005527033936232328, -0.00784373003989458, 0.03289295732975006
	  , -0.0052125295624136925, -0.008629651740193367, 0.004549806471914053, 0.008414351381361485
	  , 0.04495967552065849, 0.017750289291143417, -0.020141588523983955, -0.03408978879451752
	  , -0.01297683548182249, 0.0072343116626143456, -0.01686788722872734, -0.015342685393989086
	  , -0.027418404817581177, 0.015049204230308533, 0.038670614361763, 0.04974700137972832
	  , 0.09117315709590912, 0.02291245386004448, -0.06469528377056122, -0.08883394300937653
	  , 0.0042997095733881, 0.00648800004273653, -0.0010460071498528123, 0.008172505535185337
	  , 0.00510800676420331, -0.00645236112177372, -0.013379189185798168, 0.012050604447722435
	  , 0.027072973549365997, -0.03828435391187668, 0.023859651759266853, -0.04541463032364845
	  , -0.007190607488155365, 0.017495254054665565, -0.0006970759714022279, 0.003919011913239956
	  , 0.0497450977563858, 0.0693577229976654, -0.018754417076706886, -0.005319552030414343
	  , -0.005100797396153212, 0.036993466317653656, -0.018305864185094833, 0.01603013090789318
	  , -0.05089327692985535, -0.021634817123413086, -0.0251375250518322, 0.04328937828540802
	  , -0.07353966683149338, 0.13958479464054108, -0.0630403459072113, 0.11005557328462601
	  , -0.01085548847913742, -0.03316526114940643, -0.0031429592054337263, 0.01908482052385807
	  , 0.011086775921285152, 0.005656751804053783, 0.00055432174121961, -0.014942257665097713
	  , 0.02066446840763092, -0.0662655457854271, 0.057954102754592896, -0.034556083381175995
	  , -0.0020392206497490406, 0.03656258061528206, -0.002946883672848344, 0.020670365542173386
	  , -0.04123212769627571, 0.04481147602200508, -0.030626187101006508, 0.06656613200902939
	  , -0.07065453380346298, 0.041258517652750015, -0.07847150415182114, 0.1163330003619194
	  , -0.02461765892803669, -0.0011011213064193726, 0.029827579855918884, 0.04681895300745964
	  , 0.019259225577116013, 0.007157301530241966, -0.0031299442052841187, -0.0005507268942892551
	  , -0.04067101329565048, 0.009790271520614624, -0.022662099450826645, 0.0471838004887104
	  , 0.0044522699899971485, -0.0009774691425263882, -0.010410227812826633, 0.0020026934798806906
	  , 0.05473911389708519, -0.09229056537151337, 0.061143405735492706, -0.06445543467998505
	  , 0.046347517520189285, -0.023717062547802925, -0.0021939685102552176, -0.04571947082877159
	  , -0.001243723789229989, -0.04242100566625595, 0.00900440663099289, -0.037585098296403885
	  , -0.01751520484685898, -0.07229479402303696, 0.04069158807396889, -0.008353359997272491
	  , 0.04368262737989426, -0.017754865810275078, 0.08747048676013947, -0.044239189475774765
	  , -0.04390941187739372, 0.0640677735209465, -0.057600297033786774, 0.07233669608831406
	  , -0.046382881700992584, -0.02264777570962906, 0.028299303725361824, 0.0457085445523262
	  , -0.0037991853896528482, -0.04849006235599518, 0.006654705386608839, -0.031418632715940475
	  , -0.00030855563818477094, -0.01582461968064308, -0.07685559242963791, -0.03982210159301758
	  , -0.0033051029313355684, -0.012025383301079273, 0.00950770266354084, -0.002281096763908863
	  , -0.022179454565048218, 0.02608335204422474, -0.0313321128487587, 0.008530236780643463
	  , 0.0073128147050738335, 0.00472688814625144, -0.009816610254347324, -0.011147466488182545
	  , 0.023430602625012398, -0.006761125288903713, 0.04956621676683426, -0.09463819116353989
	  , 0.0037891992833465338, -0.07288184016942978, 0.01322940457612276, -0.045221034437417984
	  , -0.0013782531023025513, 0.004408703651279211, -0.004035471938550472, 0.016243014484643936
	  , -0.027837606146931648, 0.03528720512986183, -0.0551200769841671, 0.012701638042926788
	  , -0.14453399181365967, -0.06252624839544296, -0.14150339365005493, -0.05224107205867767
	  , 0.06571906059980392, 0.02401222474873066, 0.03147198259830475, 0.014338278211653233
	  , -0.10347829759120941, -0.18617486953735352, 0.012194636277854443, -0.12345913797616959
	  , 0.21603842079639435, 0.18173448741436005, 0.06423618644475937, 0.022961726412177086
	  , -0.0676439106464386, 0.026468051597476006, -0.10717244446277618, 0.01034888718277216
	  , 0.3189481198787689, -0.09780725836753845, 0.0075785438530147076, -0.15260857343673706
	  , 0.01299898512661457, 0.05400574207305908, 0.0045519135892391205, 0.07270630449056625
	  , 0.04556812718510628, 0.012426355853676796, 0.04937128722667694, 0.014404681511223316
	  , -0.029631493613123894, 0.16787321865558624, -0.031889159232378006, 0.13949298858642578
	  , 0.14592857658863068, -0.05879191681742668, 0.034597016870975494, -0.08852307498455048
	  , -0.05866522341966629, -0.07641710340976715, -0.046761419624090195, -0.0862242802977562
	  , -0.22555920481681824, -0.20935921370983124, 0.470578670501709, 0.22943755984306335
	  , -0.16679561138153076, -0.09026066958904266, 0.06177796050906181, -0.04945576936006546
	  , 0.07077079266309738, 0.03901804983615875, 0.07149988412857056, 0.019185742363333702
	  , -0.002209173981100321, 0.026279926300048828, -0.021401431411504745, 0.003001588163897395
	  , 0.08109964430332184, 0.0701441615819931, 0.07159919291734695, 0.07182770222425461
	  , -0.2559686303138733, -0.006316084414720535, 0.022980106994509697, 0.08269576728343964
	  , 0.008097230456769466, 0.058105893433094025, -0.09364361315965652, -0.06644731760025024
	  , -0.1759532243013382, -0.05975312739610672, -0.1889871060848236, -0.038310322910547256
	  , -0.0925896167755127, 0.007289467379450798, -0.10343234986066818, 0.10230827331542969
	  , 0.09266334772109985, -0.10583339631557465, -0.11894431710243225, -0.02249414101243019
	  , -0.0008159600547514856, -0.11763419955968857, 0.010326757095754147, -0.13688038289546967
	  , 0.012522516772150993, -0.024661371484398842, -0.057869572192430496, 0.007930820807814598
	  , -0.1265847086906433, 0.1005493551492691, -0.07628291845321655, 0.09795238822698593
	  , -0.10363972932100296, 0.22711779177188873, -0.14209526777267456, 0.014310910366475582
	  , 0.1219971552491188, 0.13836292922496796, 0.10469179600477219, 0.11506294459104538
	  , 0.048895254731178284, 0.05847933143377304, -0.042597152292728424, -0.012137060053646564
	  , 0.00032270909287035465, 0.0027534598484635353, 0.04217580333352089, -0.025420481339097023
	  , 0.019649803638458252, 0.025531601160764694, -0.11615918576717377, 0.04377929866313934
	  , -0.11216846853494644, 0.11332131177186966, -0.06690241396427155, 0.15602368116378784
	  , 0.09022349864244461, 0.0788414254784584, 0.03472040221095085, 0.0396384559571743
	  , -0.011840293183922768, -0.06517259776592255, -0.052728310227394104, -0.08505077660083771
	  , 0.014518599957227707, -0.015731260180473328, 0.038648348301649094, -0.023145057260990143
	  , -0.010553953237831593, 0.01996487006545067, -0.0015545460628345609, 0.01437569223344326
	  , -0.04450943320989609, 0.06430912762880325, -0.20420034229755402, -0.042473990470170975
	  , -0.013364282436668873, 0.027361640706658363, -0.023299124091863632, -0.029260683804750443
	  , 0.015571738593280315, 0.058333318680524826, -0.02784397266805172, -0.009015677496790886
	  , -0.09297247231006622, 0.2361682951450348, -0.18778295814990997, -0.09966020286083221
	  , 0.07548101991415024, -0.012066548690199852, 0.08198315650224686, -0.017127104103565216
	  , 0.022246137261390686, -0.017552906647324562, 0.04317036271095276, 0.004648803733289242
	  , 0.014129096642136574, 0.061683882027864456, -0.058527786284685135, 0.020753473043441772
	  , -0.0241641066968441, -0.02405938133597374, 0.01016175001859665, -0.0452001616358757
	  , -0.030588148161768913, 0.012080050073564053, -0.046074092388153076, 0.028178656473755836
	  , -0.02851688861846924, -0.1254430115222931, 0.0009246895788237453, 0.0880504846572876
	  , -0.1480855941772461, -0.14516407251358032, 0.03809422254562378, 0.226053386926651
	  , 0.024616694077849388, -0.0014199541183188558, 0.019490648061037064, -0.003051643492653966
	  , -0.030867505818605423, 0.011900248005986214, 0.002808266319334507, 0.03115524910390377
	  , 0.01820872724056244, -0.007540705613791943, 0.016787363216280937, 0.0014909375458955765
	  , 0.02059043198823929, -0.1061098650097847, 0.06588377058506012, 0.14850512146949768
	  , 0.010086432099342346, 0.1008559912443161, -0.07686805725097656, 0.0015535398852080107
	  , 0.033601775765419006, -0.048007767647504807, 0.07854495942592621, -0.033543072640895844
	  , 0.004715499933809042, 0.24947495758533478, -0.14164434373378754, -0.012416643090546131
	  , -0.031860824674367905, 0.19741615653038025, -0.10036227852106094, -0.019186070188879967
	  , -0.03300886228680611, 0.021760938689112663, -0.058481886982917786, 0.019464705139398575
	  , 0.06499777734279633, -0.07759661227464676, 0.14545530080795288, -0.07741004228591919
	  , 0.08130653202533722, -0.13543197512626648, 0.12138577550649643, -0.03758145123720169
	  , 0.07383459061384201, -0.028915006667375565, 0.033943094313144684, -0.003716703737154603
	  , 0.020877504721283913, -0.006020058877766132, 0.02666901983320713, -0.00023212831001728773
	  , -0.0116841746494174, -0.048007674515247345, 0.043312981724739075, -0.02200922556221485
	  , -0.049942851066589355, -0.0634465217590332, 0.035684455186128616, 0.12071222811937332
	  , -0.025276005268096924, 0.13091504573822021, -0.10212494432926178, 0.0015343546401709318
	  , 0.036706093698740005, -0.22406025230884552, 0.2756859362125397, -0.0502876341342926
	  , -0.01689191535115242, 0.03340350091457367, -0.010513829998672009, 0.015988823026418686
	  , 0.019042428582906723, -0.04582899436354637, 0.0168150644749403, -0.07236678898334503
	  , 0.02336116135120392, -0.0020169748459011316, -0.008046338334679604, -0.027212321758270264
	  , -0.0005953125073574483, -0.0018100279849022627, 0.004998719319701195, -0.0030512053053826094
	  , -0.027517229318618774, -0.009706295095384121, 0.03325214609503746, 0.042863596230745316
	  , -0.02455827407538891, 0.011324995197355747, -0.032635051757097244, 0.0015705156838521361
	  , -0.013910891488194466, -0.02034282125532627, -0.0013624380808323622, -0.003137300256639719
	  , 0.0026647401973605156, 0.014784357510507107, -0.03572166711091995, 0.052238643169403076
	  , -0.029531380161643028, -0.009759516455233097, 0.03678891062736511, 0.0529218427836895
	  , 0.0004361566680017859, 0.003905635327100754, 0.013534480705857277, 0.01032236684113741
	  , 0.02888871170580387, 0.023833701387047768, -0.013281552121043205, -0.02736937440931797
	  , 0.002028069458901882, 0.009971775114536285, -0.010126289911568165, 0.020833974704146385
	  , 6.161940837046131e-05, 0.017085358500480652, -0.023065604269504547, 0.026691952720284462
	  , 0.02194283716380596, 0.008656616322696209, 0.008547085337340832, 0.026807662099599838
	  , 0.0382748506963253, -0.0028899593744426966, -0.018020784482359886, -0.013026656582951546
	  , 0.004730931017547846, 0.00335150514729321, -0.001937755267135799, -0.005426093935966492
	  , -0.0023610766511410475, 0.004658176563680172, 0.0006014234386384487, 0.014039533212780952
	  , 0.008762740530073643, 0.006630423478782177, 0.008565295487642288, 0.010510703548789024
	  , 0.002367086010053754, -0.029061807319521904, 0.059392157942056656, -0.05891576036810875
	  , -0.021522218361496925, -0.022630710154771805, 0.01890195719897747, -0.02564510703086853
	  , -0.00067281408701092, -0.028357747942209244, 0.005609998479485512, -0.01898592710494995
	  , 0.014978661201894283, 0.02615252509713173, -0.0009054268011823297, -0.02957511879503727
	  , -0.0013205934083089232, -0.01524287462234497, 0.04146762192249298, 0.005330726969987154
	  , -0.002402015496045351, 0.0422859713435173, -0.0279174093157053, 0.029903387650847435
	  , 0.026441678404808044, 0.02226337231695652, -0.0476166307926178, -0.01498210895806551
	  , 0.008866925723850727, -0.02373884990811348, 0.015774093568325043, -0.03719567507505417
	  , -0.020652838051319122, -0.02468693070113659, 0.007441886235028505, -0.00468793697655201
	  , 0.005484513007104397, 0.0059462301433086395, 0.001777778030373156, -0.018625563010573387
	  , -0.008511249907314777, -0.004761007148772478, -0.01213200856000185, 0.011416715569794178
	  , -0.013582026585936546, -0.008090946823358536, 0.006419058423489332, 0.0032350674737244844
	  , -0.057125285267829895, -0.03394532576203346, 0.04481220990419388, 0.04067036136984825
	  , 0.020805723965168, 0.004730779677629471, 0.002662331098690629, -0.022819818928837776
	  , -0.01235872507095337, -0.024630209431052208, -0.0026501475367695093, -0.004556456580758095
	  , -0.017435170710086823, 0.014136040583252907, 0.00563381751999259, 0.042812857776880264
	  , -0.02041059359908104, -0.008350545540452003, -0.042918860912323, -0.014977790415287018
	  , -0.009008839726448059, 0.0034699481911957264, 0.02149534970521927, 0.01065164152532816
	  , -0.018646936863660812, -0.0767335519194603, 0.0031574484892189503, -0.103770911693573
	  , -0.04589073359966278, -0.02989944815635681, 0.029908932745456696, 0.032530706375837326
	  , -0.05122186616063118, 0.03882648050785065, -0.05097416043281555, -0.014498424716293812
	  , -0.024827860295772552, -0.10741221904754639, 0.1293255239725113, -0.14479029178619385
	  , -0.021111061796545982, -0.050218433141708374, 0.03624795749783516, 0.07186124473810196
	  , 0.023991649970412254, 0.012067150324583054, 0.031504884362220764, 0.031017204746603966
	  , -0.012195346876978874, -0.0259352196007967, -0.02320406213402748, 0.026248065754771233
	  , -0.03389271721243858, -0.03524025157094002, 0.07509288191795349, -0.0333784818649292
	  , 0.007950495928525925, 0.001405242015607655, -0.044267281889915466, -0.03619721159338951
	  , 0.14372670650482178, 0.09354238957166672, -0.09792578220367432, -0.03806792572140694
	  , 0.10878204554319382, 0.07685672491788864, -0.12819942831993103, -0.051314566284418106
	  , 0.019638726487755775, 0.017168501392006874, 0.04123418778181076, 0.011209988035261631
	  , -0.001218386460095644, 0.0347040556371212, -0.013431769795715809, 0.021122336387634277
	  , 0.020772764459252357, 0.005941350013017654, 0.037811897695064545, 0.0343770757317543
	  , 0.02834911271929741, 0.07353289425373077, -0.1285145878791809, 0.08728627115488052
	  , -0.06527847051620483, -0.04001585766673088, -0.05914309620857239, 0.0499289371073246
	  , 0.010364538989961147, 0.020776638761162758, -0.07037169486284256, -0.022412961348891258
	  , 0.007247972767800093, 0.0618843175470829, -0.071895532310009, -0.020811788737773895
	  , -0.009349899366497993, -0.011875047348439693, 0.038638532161712646, -0.01825624518096447
	  , 0.023830367252230644, -0.024753136560320854, -0.016448169946670532, -0.059914108365774155
	  , 0.014104441739618778, 0.061827272176742554, -0.014581994153559208, -0.011695588938891888
	  , -0.0045467643067240715, 0.02839406207203865, -0.07393492758274078, 0.04794947803020477
	  , -0.022349966689944267, -0.01587294042110443, -0.07260610908269882, 0.09472159296274185
	  , 0.014961089007556438, 0.01396272610872984, 0.017854802310466766, 0.03429238498210907
	  , -0.03794695436954498, -0.02357466146349907, 0.05373338237404823, 0.024820826947689056
	  , 0.022806407883763313, -0.00989523995667696, -0.022255748510360718, 0.012492013163864613
	  , -0.08443740755319595, -0.09654922783374786, 0.057248856872320175, 0.022459378466010094
	  , 0.015121228992938995, 0.01793389767408371, -0.0008556321845389903, 0.023956485092639923
	  , -0.008688241243362427, 0.024329110980033875, 0.015118046663701534, 0.02656986005604267
	  , -0.021322552114725113, -0.06388409435749054, 0.051145993173122406, -0.032727647572755814
	  , 0.009312426671385765, 0.008257158100605011, -0.0008369972347281873, -0.015230352059006691
	  , -0.002451358363032341, 0.008109775371849537, -0.018138611689209938, 0.01709236390888691
	  , -0.00951660517603159, -0.06932789087295532, 0.04705721139907837, 0.026739614084362984
	  , 0.013928941451013088, -0.03998499736189842, 0.006199635099619627, -0.02459654025733471
	  , 0.02421961911022663, 0.014043182134628296, 0.032607052475214005, 0.015388308092951775
	  , -0.13915668427944183, -0.06383306533098221, -0.08800972253084183, 0.1254790723323822
	  , -0.012479495257139206, 0.0077763828448951244, 0.016129398718476295, 0.012933025136590004
	  , 0.009403557516634464, 0.017328796908259392, 0.01235535554587841, 0.013870245777070522
	  , -0.01149051170796156, -0.0020658811554312706, -0.0052797552198171616, -0.0017238176660612226
	  , 0.015048736706376076, -0.03415273502469063, -0.009142983704805374, -0.02167145162820816
	  , 0.012378424406051636, 0.00445990264415741, -0.03871972858905792, -0.0397290401160717
	  , 0.022086169570684433, 0.07843318581581116, 0.05733649432659149, -0.04990081116557121
	  , 0.11352238059043884, 0.17583699524402618, -0.08801727741956711, -0.10301011055707932
	  , 0.010507752187550068, 0.012276495806872845, 0.006591273937374353, 0.014784666709601879
	  , 0.015309218317270279, 0.015773985534906387, -0.01856168732047081, -0.006297233980149031
	  , -0.00574675016105175, 0.003211876843124628, 0.019447172060608864, 0.017619572579860687
	  , 0.08376128226518631, 0.08123945444822311, 0.012771448120474815, -0.08653957396745682
	  , -0.017244361340999603, -0.005056571215391159, -0.028922179713845253, -0.015915323048830032
	  , 0.014098682440817356, 0.017211515456438065, 0.014976223930716515, -0.005944626405835152
	  , -0.011034192517399788, -0.03843041509389877, -0.051526397466659546, 0.05345892906188965
	  , -0.08873368799686432, -0.010124526917934418, -0.020592695102095604, 0.12758904695510864
	  , 0.00832109060138464, 0.02770140767097473, -0.03217985853552818, -0.0408320352435112
	  , 0.010561604052782059, 0.0002699119213502854, 0.024287035688757896, -0.028963739052414894
	  , 0.029197027906775475, 0.0449020117521286, 0.033185768872499466, -0.05119485408067703
	  , -0.015369418077170849, 0.01192806102335453, 0.05236662179231644, 0.015117630362510681
	  , -0.009997614659368992, -0.003086383920162916, 0.01847914047539234, 0.009175975807011127
	  , 0.012015949003398418, -0.02862713485956192, 0.0035658509004861116, 0.00277808983810246
	  , 0.034679677337408066, 0.08047790080308914, -0.02902059257030487, -0.07101224362850189
	  , -0.03688546270132065, -0.04059959575533867, -0.054899465292692184, 0.057471055537462234
	  , 0.11981687694787979, 0.03936374559998512, 0.02152073197066784, -0.06759093701839447
	  , 0.0013058133190497756, 0.007290445733815432, -0.015876710414886475, 0.018026625737547874
	  , -0.015139985829591751, -0.030686581507325172, 0.01887958124279976, 0.0040251887403428555
	};

	float deconvolution_block_deconv_b[4] =
	{ 0.03035614639520645, 0.0071249897591769695, 0.04208717122673988, 0.02367696538567543 };

private:
	static fsrcnn_s_params* instance;
	fsrcnn_s_params() {};
	fsrcnn_s_params(const fsrcnn_s_params&) {};
	fsrcnn_s_params& operator=(const fsrcnn_s_params&) {};
};

